<?xml version="1.0"?>
<opencv_storage>
<cascade>
  <stageType>BOOST</stageType>
  <featureType>LBP</featureType>
  <height>16</height>
  <width>60</width>
  <stageParams>
    <boostType>GAB</boostType>
    <minHitRate>9.9500000476837158e-01</minHitRate>
    <maxFalseAlarm>5.0000000000000000e-01</maxFalseAlarm>
    <weightTrimRate>9.4999999999999996e-01</weightTrimRate>
    <maxDepth>1</maxDepth>
    <maxWeakCount>100</maxWeakCount></stageParams>
  <featureParams>
    <maxCatCount>256</maxCatCount>
    <featSize>1</featSize></featureParams>
  <stageNum>10</stageNum>
  <stages>
    <!-- stage 0 -->
    <_>
      <maxWeakCount>2</maxWeakCount>
      <stageThreshold>-2.2745998203754425e-01</stageThreshold>
      <weakClassifiers>
        <_>
          <internalNodes>
            0 -1 8 -200675414 -745827957 155238684 -141574137 -510934021
            -90601271 -1022908993 -1041</internalNodes>
          <leafValues>
            -9.1925466060638428e-01 8.5880076885223389e-01</leafValues></_>
        <_>
          <internalNodes>
            0 -1 3 -518804562 -607317309 -1052651161 -576863481
            -1736201217 -91379570 -1649440578 -1053697</internalNodes>
          <leafValues>
            -9.1945022344589233e-01 6.9179469347000122e-01</leafValues></_></weakClassifiers></_>
    <!-- stage 1 -->
    <_>
      <maxWeakCount>3</maxWeakCount>
      <stageThreshold>-7.8711837530136108e-01</stageThreshold>
      <weakClassifiers>
        <_>
          <internalNodes>
            0 -1 16 -673186818 -1688604377 -719287368 -6565189
            -339648325 -1347692452 -74867713 -4460609</internalNodes>
          <leafValues>
            -8.0810236930847168e-01 7.1374762058258057e-01</leafValues></_>
        <_>
          <internalNodes>
            0 -1 25 823133649 -1177347647 -1722525219 2131965361
            -2133221121 -1163818850 -1504798037 -1170732839</internalNodes>
          <leafValues>
            -7.1999180316925049e-01 7.1648865938186646e-01</leafValues></_>
        <_>
          <internalNodes>
            0 -1 17 -5186051 -3 -3 -8388611 -1115906820 -572858628
            -16842755 -81723912</internalNodes>
          <leafValues>
            -6.7002677917480469e-01 7.4097573757171631e-01</leafValues></_></weakClassifiers></_>
    <!-- stage 2 -->
    <_>
      <maxWeakCount>3</maxWeakCount>
      <stageThreshold>-8.9589351415634155e-01</stageThreshold>
      <weakClassifiers>
        <_>
          <internalNodes>
            0 -1 9 -2162690 -48260641 -107350554 -69208553 -212903313
            -1288002541 -174327409 -266881</internalNodes>
          <leafValues>
            -8.7218046188354492e-01 5.7903492450714111e-01</leafValues></_>
        <_>
          <internalNodes>
            0 -1 24 288510449 -40824111 1476773727 1598967885
            -1476331265 -85339973 771813343 -1145435477</internalNodes>
          <leafValues>
            -7.0680385828018188e-01 6.7518335580825806e-01</leafValues></_>
        <_>
          <internalNodes>
            0 -1 19 -8917246 -50883113 -1653383969 -577908227
            -1154236449 -356597608 -191110401 -69995029</internalNodes>
          <leafValues>
            -6.8909472227096558e-01 6.8309080600738525e-01</leafValues></_></weakClassifiers></_>
    <!-- stage 3 -->
    <_>
      <maxWeakCount>3</maxWeakCount>
      <stageThreshold>-6.7287337779998779e-01</stageThreshold>
      <weakClassifiers>
        <_>
          <internalNodes>
            0 -1 21 -196611 -1 -1496097 -32769 -579535364 -34275843
            -198658 -1507332</internalNodes>
          <leafValues>
            -6.7241376638412476e-01 7.3430961370468140e-01</leafValues></_>
        <_>
          <internalNodes>
            0 -1 6 50331519 16776063 -1082533417 -1499470069 1836575679
            -339491911 -10749053 -1361051737</internalNodes>
          <leafValues>
            -7.4571233987808228e-01 6.5505105257034302e-01</leafValues></_>
        <_>
          <internalNodes>
            0 -1 7 213539071 2146910205 2147221503 -67141891 -1090623233
            -1 -1359052801 -1145430791</internalNodes>
          <leafValues>
            -6.4417564868927002e-01 7.4525278806686401e-01</leafValues></_></weakClassifiers></_>
    <!-- stage 4 -->
    <_>
      <maxWeakCount>3</maxWeakCount>
      <stageThreshold>-8.7704044580459595e-01</stageThreshold>
      <weakClassifiers>
        <_>
          <internalNodes>
            0 -1 29 823145461 -33281 -1 -163843 -1208483841 -1
            -1074070529 -1078445123</internalNodes>
          <leafValues>
            -6.7598843574523926e-01 7.2793352603912354e-01</leafValues></_>
        <_>
          <internalNodes>
            0 -1 11 1440167255 1979127127 -942810241 2147290447
            285771759 61591625 61385455 2011948526</internalNodes>
          <leafValues>
            -8.2276266813278198e-01 5.7555955648422241e-01</leafValues></_>
        <_>
          <internalNodes>
            0 -1 30 -1257079299 -747040423 1430217727 2134181773
            -932907021 -769541 -1171768322 -1163388924</internalNodes>
          <leafValues>
            -7.0470947027206421e-01 6.2171065807342529e-01</leafValues></_></weakClassifiers></_>
    <!-- stage 5 -->
    <_>
      <maxWeakCount>4</maxWeakCount>
      <stageThreshold>-1.6291874647140503e+00</stageThreshold>
      <weakClassifiers>
        <_>
          <internalNodes>
            0 -1 15 -67110942 -740827489 -265167378 -239994917
            -129773089 -511655692 -176958483 -17302821</internalNodes>
          <leafValues>
            -8.3270913362503052e-01 5.5629688501358032e-01</leafValues></_>
        <_>
          <internalNodes>
            0 -1 10 -746522116 -753969832 -644294147 2136947161
            -1457595252 -1095230279 -271908899 -80069652</internalNodes>
          <leafValues>
            -7.5275319814682007e-01 5.1613408327102661e-01</leafValues></_>
        <_>
          <internalNodes>
            0 -1 2 -428612538 537643755 -804929274 -291901373 1727113079
            1099007683 -172754001 -437257601</internalNodes>
          <leafValues>
            -7.2049421072006226e-01 5.3686642646789551e-01</leafValues></_>
        <_>
          <internalNodes>
            0 -1 36 -408434194 1080086560 -804744316 147507468
            -259546939 1078019466 -1903700507 -254810705</internalNodes>
          <leafValues>
            -7.1223694086074829e-01 5.8431017398834229e-01</leafValues></_></weakClassifiers></_>
    <!-- stage 6 -->
    <_>
      <maxWeakCount>5</maxWeakCount>
      <stageThreshold>-9.2818886041641235e-01</stageThreshold>
      <weakClassifiers>
        <_>
          <internalNodes>
            0 -1 27 -40855300 -648930896 -1878948449 -545128545
            -310851396 -638940739 -1192584722 -90530915</internalNodes>
          <leafValues>
            -7.6687115430831909e-01 5.2742618322372437e-01</leafValues></_>
        <_>
          <internalNodes>
            0 -1 14 1365473143 1430459207 -762814497 1459948841 428191
            -23553339 -1886724945 -33627569</internalNodes>
          <leafValues>
            -6.6391879320144653e-01 5.9416711330413818e-01</leafValues></_>
        <_>
          <internalNodes>
            0 -1 35 -1032063006 -1049569461 -1584475072 -842523859
            -477374620 16812191 -18181512 -171967757</internalNodes>
          <leafValues>
            -6.4233559370040894e-01 6.2926203012466431e-01</leafValues></_>
        <_>
          <internalNodes>
            0 -1 18 397434101 -107458436 -1824399875 -15399843
            -2128432968 -352681854 671277757 -1616117363</internalNodes>
          <leafValues>
            -6.4663720130920410e-01 5.9064269065856934e-01</leafValues></_>
        <_>
          <internalNodes>
            0 -1 1 -720123762 1393774850 -184524500 -708601597
            -917665313 -1736038301 1536080383 -71583045</internalNodes>
          <leafValues>
            -7.3810958862304688e-01 5.5489528179168701e-01</leafValues></_></weakClassifiers></_>
    <!-- stage 7 -->
    <_>
      <maxWeakCount>4</maxWeakCount>
      <stageThreshold>-5.1142269372940063e-01</stageThreshold>
      <weakClassifiers>
        <_>
          <internalNodes>
            0 -1 22 -1826614031 -40693551 -708488737 2036072917
            -1870620422 -1163689574 478730431 991562157</internalNodes>
          <leafValues>
            -8.1196582317352295e-01 5.6308215856552124e-01</leafValues></_>
        <_>
          <internalNodes>
            0 -1 26 -650117670 807829843 1360974300 -402583401
            -1902249060 -1049063418 -86995524 -71309377</internalNodes>
          <leafValues>
            -6.4657127857208252e-01 5.8525127172470093e-01</leafValues></_>
        <_>
          <internalNodes>
            0 -1 33 444730844 -53473256 -753804835 1968963793
            -1593728263 -74864491 704756153 -1105192552</internalNodes>
          <leafValues>
            -7.5799965858459473e-01 4.9431401491165161e-01</leafValues></_>
        <_>
          <internalNodes>
            0 -1 12 -573309460 1443897424 -1858893822 -1883533153
            -1337947947 -1733197822 -884185061 -74460997</internalNodes>
          <leafValues>
            -8.5484802722930908e-01 4.7329154610633850e-01</leafValues></_></weakClassifiers></_>
    <!-- stage 8 -->
    <_>
      <maxWeakCount>5</maxWeakCount>
      <stageThreshold>-9.7225010395050049e-01</stageThreshold>
      <weakClassifiers>
        <_>
          <internalNodes>
            0 -1 31 1000889855 -294920 -67108867 2134848885 -1078001922
            -1 -1073745923 -1080420356</internalNodes>
          <leafValues>
            -5.8883720636367798e-01 6.8432432413101196e-01</leafValues></_>
        <_>
          <internalNodes>
            0 -1 23 -1189339715 -1613015147 -720692291 -1114691315
            739512560 521187901 2075021305 -14009703</internalNodes>
          <leafValues>
            -6.3852405548095703e-01 6.0456299781799316e-01</leafValues></_>
        <_>
          <internalNodes>
            0 -1 4 -149774176 2065281621 -989721464 -48527509
            -2012233989 -2087497468 -72099361 -71571009</internalNodes>
          <leafValues>
            -8.5272192955017090e-01 4.3617472052574158e-01</leafValues></_>
        <_>
          <internalNodes>
            0 -1 5 978604253 -48426701 411262939 856512917 -1870491429
            -1717328712 446888091 940054681</internalNodes>
          <leafValues>
            -7.4912691116333008e-01 5.6022602319717407e-01</leafValues></_>
        <_>
          <internalNodes>
            0 -1 13 -1306523395 -2866879 453132669 -109112996
            -1876772102 -1141336008 -83317829 -15204272</internalNodes>
          <leafValues>
            -6.8490833044052124e-01 5.6806337833404541e-01</leafValues></_></weakClassifiers></_>
    <!-- stage 9 -->
    <_>
      <maxWeakCount>5</maxWeakCount>
      <stageThreshold>-8.5280466079711914e-01</stageThreshold>
      <weakClassifiers>
        <_>
          <internalNodes>
            0 -1 20 -210668559 2002728307 -1 2146916343 -143392773 -2865
            -1103101953 -4194305</internalNodes>
          <leafValues>
            -5.6204378604888916e-01 6.8141591548919678e-01</leafValues></_>
        <_>
          <internalNodes>
            0 -1 0 -498077810 15255174 -673263968 -274835297 2101685623
            1300884871 -1044307124 -302253085</internalNodes>
          <leafValues>
            -6.4148813486099243e-01 5.5966889858245850e-01</leafValues></_>
        <_>
          <internalNodes>
            0 -1 32 -34144258 386700784 -1055348072 613779486 -455554050
            681608754 -273376305 -1075856385</internalNodes>
          <leafValues>
            -6.3696128129959106e-01 5.5470967292785645e-01</leafValues></_>
        <_>
          <internalNodes>
            0 -1 34 -104858642 42327999 -505427198 272161539 532068327
            2544259 -608719929 1978919831</internalNodes>
          <leafValues>
            -7.5848835706710815e-01 4.6718403697013855e-01</leafValues></_>
        <_>
          <internalNodes>
            0 -1 28 -1123527431 -1179497127 -2017387145 2098921553
            -1172791045 -1081605960 -1970630706 -81256220</internalNodes>
          <leafValues>
            -6.7093306779861450e-01 5.5450594425201416e-01</leafValues></_></weakClassifiers></_></stages>
  <features>
    <_>
      <rect>
        0 2 3 4</rect></_>
    <_>
      <rect>
        0 3 16 4</rect></_>
    <_>
      <rect>
        1 1 3 3</rect></_>
    <_>
      <rect>
        9 0 12 4</rect></_>
    <_>
      <rect>
        10 6 14 3</rect></_>
    <_>
      <rect>
        12 0 6 1</rect></_>
    <_>
      <rect>
        13 1 6 3</rect></_>
    <_>
      <rect>
        14 0 6 1</rect></_>
    <_>
      <rect>
        14 0 9 5</rect></_>
    <_>
      <rect>
        16 1 7 5</rect></_>
    <_>
      <rect>
        17 10 11 2</rect></_>
    <_>
      <rect>
        18 0 14 4</rect></_>
    <_>
      <rect>
        18 6 6 2</rect></_>
    <_>
      <rect>
        18 13 5 1</rect></_>
    <_>
      <rect>
        19 0 12 3</rect></_>
    <_>
      <rect>
        19 4 6 2</rect></_>
    <_>
      <rect>
        19 4 6 4</rect></_>
    <_>
      <rect>
        21 10 11 2</rect></_>
    <_>
      <rect>
        21 13 4 1</rect></_>
    <_>
      <rect>
        22 0 5 3</rect></_>
    <_>
      <rect>
        22 0 11 2</rect></_>
    <_>
      <rect>
        23 10 8 2</rect></_>
    <_>
      <rect>
        24 0 6 1</rect></_>
    <_>
      <rect>
        24 11 6 1</rect></_>
    <_>
      <rect>
        25 0 6 1</rect></_>
    <_>
      <rect>
        25 0 7 1</rect></_>
    <_>
      <rect>
        27 7 3 3</rect></_>
    <_>
      <rect>
        27 10 9 2</rect></_>
    <_>
      <rect>
        28 0 7 1</rect></_>
    <_>
      <rect>
        30 0 3 1</rect></_>
    <_>
      <rect>
        30 13 4 1</rect></_>
    <_>
      <rect>
        33 0 6 1</rect></_>
    <_>
      <rect>
        33 7 2 3</rect></_>
    <_>
      <rect>
        36 0 6 1</rect></_>
    <_>
      <rect>
        48 6 4 2</rect></_>
    <_>
      <rect>
        51 3 3 4</rect></_>
    <_>
      <rect>
        51 6 3 3</rect></_></features></cascade>
</opencv_storage>
